Dimension,Weight
0,0.13771747214070007
1,0.10643854745965677
2,-0.19808504305326524
3,0.2835665056215577
4,0.2323614690733674
5,-0.19887878186353164
6,-0.24465598801475788
7,0.13951078202781503
8,-0.16908689558263762
9,-0.09699441403415104
10,-0.1644089490867863
11,0.36539953377660406
12,0.4139506570205643
13,0.12890494043843
14,-0.20218449587787324
15,-0.25335894405430814
16,0.24284424019046932
17,0.16428990353090903
18,0.1537956841516644
19,0.3761727732230251
20,-0.22177126288126642
21,0.3858048813535599
22,-0.6596267123975661
23,0.22282256992363028
24,0.04172500382816022
25,-0.11328411712226062
26,-0.5201335181200851
27,-0.3605249712014607
28,-0.20097364929770112
29,0.07957774340371467
30,0.17731205073937994
31,-0.2813071818118096
32,-0.035395735069661226
33,0.48352655406588324
34,-0.19342073035297566
35,-0.3339583961936136
36,0.3680213518847857
37,0.06973112986039907
38,-0.34479846041700934
39,0.152258185813806
40,0.20214009633526933
41,0.08885440508786253
42,0.6042173301134555
43,0.49390348982118903
44,0.03465757459823409
45,-0.24776531313594038
46,-0.003280165202995051
47,0.03898320501962816
48,-0.20248299813447587
49,-0.5075078825129274
50,0.020503527785204846
51,0.052202970622472415
52,0.4599572291463673
53,0.11491276475309221
54,0.010179746891689451
55,0.06432481628162065
56,0.19275186134084565
57,-0.05674227708021135
58,-0.0276570728837948
59,-0.28859869198232935
60,-0.4093822818842752
61,0.18177005603029917
62,-0.16094750425786225
63,0.08766910205672203
64,0.051393567075883745
65,0.27828079861667065
66,-0.10638865896068797
67,-0.6421759156662438
68,-0.16463087500596482
69,0.0845682604689582
70,-0.24060691645938154
71,-0.2849970308502216
72,-0.19663408121118592
73,-0.06267322843565432
74,0.059792180024160584
75,0.026782536659348037
76,0.28947447747442434
77,0.03152347187725133
78,0.09352076565462092
79,-0.09823375603679754
80,-0.05038613339360628
81,0.39903114455159494
82,-0.21691441636961806
83,0.2264547540015549
84,0.5098151650480882
85,-0.08766073940381208
86,0.31613539391194456
87,0.16329296325673961
88,-0.2996427148023672
89,0.11625330857524496
90,0.149943699362542
91,0.024332121477806154
92,-0.23452360942069184
93,-0.2699423699946608
94,0.2603204519529495
95,0.27733837644523335
96,0.33261367498811567
97,-0.3458403128550412
98,0.16282830812280039
99,0.006784568733862423
100,-0.06286324921308639
101,-0.41569261638285365
102,-0.32240393931334976
103,-0.20637343579748424
104,0.026730533169181368
105,0.149311162073917
106,0.15863443039695985
107,0.29710565113406306
108,0.4656148081748408
109,0.22256409331726248
110,-0.07267282200356961
111,0.35553634696107334
112,0.04204080212021055
113,0.11767219189906927
114,0.2464535952108591
115,-0.2186061325756592
116,0.04340702030013908
117,-0.15679441547141845
118,-0.3197896919517601
119,0.05700494978752718
120,0.22083631895470957
121,0.08508060024044896
122,-0.25962875393411866
123,0.12380239445708813
124,-0.08981602279900033
125,0.023436687671718588
126,-0.11673487907763914
127,-0.09245870893204022
128,0.311133959643373
129,-0.4333864703889069
130,-0.16427306556434773
131,0.21074531124505724
132,0.0018021408640618644
133,-0.19540914382822097
134,0.06041701290400739
135,0.30897874681438914
136,0.4259292943782736
137,-0.5576963538544665
138,-0.177614459361871
139,0.07499782110631151
140,-0.18760410442654527
141,0.17904536961572373
142,0.19843357036078144
143,0.17174778531669818
144,-0.3384528145660629
145,-0.1544787729616799
146,-0.49544659810540886
147,-0.08413999447120432
148,-0.06737215580704031
149,0.009755576081973942
150,0.13025224829371104
151,0.14343926913031801
152,-0.31446108557506797
153,0.27459643751645085
154,0.20239178427749366
155,-0.14141160329692315
156,0.07918969568926751
157,-0.08096727248313258
158,-0.23854827172121545
159,0.48389737023213997
160,-0.5467242535145604
161,0.3839227178909928
162,0.3186565674205743
163,-0.6254120070955942
164,-0.1265989773480118
165,-0.20753985778500905
166,-0.15408153837899966
167,-0.13882883390702053
168,0.5671700206421579
169,-0.1109991089816858
170,-0.04590515333552736
171,0.48783218133872525
172,0.30573393662710047
173,0.5334513862365854
174,-0.01344830695711173
175,-0.07103030350620351
176,-0.24901932052241835
177,-0.23503212789337632
178,0.1555673756665762
179,0.18314915084849914
180,0.05962512521982546
181,-0.15300168864338373
182,-0.003429391441383542
183,-0.21243049047087023
184,-0.12217018401223236
185,-0.11046523229346793
186,-0.1684163864585453
187,-0.01375148862846184
188,-0.02106673612653891
189,-0.14430257462857887
190,-0.18786984482325947
191,0.35785883684113057
192,-0.7809385324571968
193,-0.3472224354127975
194,0.5133652248687786
195,0.18290245011730366
196,0.2698527825734897
197,0.2577110797903165
198,-0.15556098521866332
199,0.02099112623411434
200,0.12806571192661292
201,0.1725189710980668
202,-0.26856024093218556
203,0.05255656884133652
204,0.13220497878026224
205,-0.00641409422763887
206,0.25160369698653035
207,0.1584514608903294
208,-0.4178183813141711
209,0.29066642172430146
210,0.30102861190634017
211,-0.37099559473431654
212,0.22065075313247054
213,-0.16297132634761688
214,0.011609901801883598
215,0.30434454050845444
216,-0.14716732061633675
217,-0.14159771139045718
218,-0.052311979305359906
219,0.18455836266305467
220,-0.2707943846786898
221,-0.15550552987876398
222,0.40717672923425174
223,-0.1029541125073491
224,0.30854676186024643
225,0.13880511755193173
226,0.013602261229874709
227,-0.24615859369374712
228,0.2026290698690522
229,0.13449266306246863
230,0.21447433322857906
231,-0.4481136531196375
232,0.21151546836549365
233,0.5195026088266766
234,-0.4055218170466209
235,-0.04293479282870483
236,0.3528246637336751
237,0.20256307393903866
238,-0.031593281573429034
239,-0.28197745905054966
240,0.16077502501284072
241,-0.13291106288709803
242,0.08224699368158611
243,0.6084544014091462
244,0.12255919862630558
245,-0.3126135591609861
246,-0.11427252121366915
247,-0.0732680829845017
248,0.12735023363177805
249,-0.2631032576690762
250,-0.22542877867854122
251,-0.08014733346407737
252,0.38825956812392226
253,-0.03831579650256589
254,-0.26312904252350094
255,-0.19264233606189177
256,-0.02272801730357324
257,0.18482605210036362
258,0.18128916961647468
259,-0.1845689250236101
260,-0.033690748819895276
261,0.34720982316591853
262,-0.29450634604348824
263,-0.284489616008625
264,-0.18471361535650344
265,-0.17041155093712118
266,0.5144754867788291
267,-0.04750604584765578
268,0.19318380887844186
269,0.1003041846402831
270,-0.29183006949197376
271,-0.06091752399055443
272,-0.19207947141368714
273,-0.27074797506535325
274,-0.06801631800316668
275,0.3795940823827769
276,-0.17474010783300314
277,0.07388079461945832
278,0.13141167191019942
279,0.18347580005261932
280,0.10932624384286173
281,0.260119452359756
282,-0.3760450201945707
283,-0.17635826677317804
284,-0.5197562011811517
285,-0.1633500650792298
286,0.03570710264447454
287,0.17733476363883657
288,-0.21003575277784886
289,0.1028517685501265
290,-0.26517688092263475
291,-0.04388652304048654
292,0.03205308403554393
293,0.08549537811381677
294,0.5204927386067865
295,0.041265030444355026
296,0.3821256835411376
297,0.14976034395046728
298,-0.43521797253988376
299,-0.29886510811381084
300,-0.0723812622167982
301,-0.08236973430722909
302,0.09512771843770011
303,-0.2133041039296023
304,0.49679316726465483
305,-0.1612413803673287
306,-0.2593852586532248
307,-0.2648762238860157
308,-0.30300094445974146
309,0.13116720848808336
310,0.37162817338372967
311,-0.25626969596669735
312,0.7376071367983753
313,-0.3265839202272812
314,-0.633767201496228
315,-0.15010409288616422
316,-0.4621744842021392
317,-0.00936548317219807
318,0.10828719972100788
319,0.02121564874257926
320,-0.15338881000214122
321,-0.17937678199122703
322,0.2617668186360551
323,-0.1739352031308287
324,-0.013115167480426125
325,0.33853970367813185
326,-0.022345055843692486
327,0.03438482563198403
328,0.049768131916051776
329,0.3593241411282373
330,-0.21331321478507054
331,0.27074432708533336
332,-0.0834959074673194
333,0.04417463541146261
334,-0.021623174591442588
335,-0.32788165578557443
336,-0.06984012746970984
337,0.3615438882376396
338,0.1643917280830386
339,0.32436889946127473
340,0.4279301847368662
341,-0.5366423578935238
342,0.11863967121179238
343,0.1785660033794796
344,-0.01943838669239501
345,-0.08633165765774227
346,0.3661454574474553
347,-0.2649115088192429
348,0.27188733304289886
349,0.1709570540227302
350,0.412215763045231
351,0.15771436734248298
352,-0.1211543599733343
353,0.19352922539387302
354,-0.6109832882135481
355,0.18039551210544305
356,0.05988672525821361
357,-0.0494039282960425
358,0.23742615887570917
359,-0.15473803074501505
360,-0.021629792078677136
361,-0.3567361044297301
362,-0.1855301647491826
363,-0.06548717067902884
364,0.24956081213036418
365,0.2897633715770387
366,-0.23544200517735392
367,-0.514375325870536
368,0.11774293752893168
369,0.13128908620583396
370,-0.06033535436434541
371,-0.11133019443820819
372,0.18624760503795354
373,0.1166007350456301
374,0.14340026827651375
375,0.031720965186498126
376,0.00582308450407075
377,-0.4050541782552507
378,-0.13099104629397593
379,-0.08028262396723847
380,0.28716707524610746
381,-0.2985055692585062
382,0.31703922728886974
383,0.2715697076416897
384,-0.10031842470995476
385,-0.35053083578772326
386,0.4395309839081148
387,-0.5016215464134056
388,0.33403383876562176
389,0.23630069410487795
390,0.8539687387958966
391,-0.032696920804533486
392,-0.2757487209071113
393,0.1683628267591175
394,0.11642700084602212
395,-0.3372536645188541
396,-0.4662347559392979
397,-0.23073624540620888
398,0.2720327038701065
399,-0.13890817173922843
400,-0.26275540147997567
401,-0.22012844653105879
402,0.5395814529996945
403,0.15992306312088192
404,-0.2630038850837936
405,0.13302535703172727
406,0.07108733504317417
407,0.3261933793856319
408,-0.02579663305940122
409,-0.1834432198457661
410,-0.032013629848645274
411,0.339527630994782
412,0.1722970248856915
413,0.05802285879773229
414,-0.22625070981430173
415,-0.17001971151224107
416,0.0872202231396111
417,0.20260527823006652
418,-0.25212227119785857
419,0.07309081703242551
420,-0.1051159824364899
421,0.10674799148649913
422,0.03831103779551564
423,-0.32368945203091115
424,0.27890059901714576
425,-0.11466827772796852
426,0.1621212418694607
427,-0.1146746621228347
428,0.2568596878184042
429,0.24780735725275416
430,0.03386647971619929
431,0.25773666186178795
432,0.3578044087064141
433,0.04514358513659037
434,0.09142883984192224
435,0.5403263491946864
436,0.1535883682308105
437,-0.19651758535577002
438,0.4596048722959579
439,0.05482923482952035
440,0.13962051881346957
441,-0.06546717131523679
442,-0.0896792777181488
443,0.13107171007323065
444,0.08700781319458198
445,0.20297556960678653
446,-0.059449186072282154
447,0.008280833410503442
448,-0.1823265045670056
449,0.3137717070626517
450,-0.0046737565159357345
451,0.13676877902705334
452,-0.17485367565481671
453,-0.19225957034350227
454,-0.5461541651765321
455,0.3804402948053012
456,0.348267306588774
457,-0.4955788855787282
458,0.1147675699240933
459,0.24257709774683364
460,0.11224562347308578
461,0.3048532905024057
462,0.5548499332571141
463,-0.5652062315599525
464,0.15113408641461568
465,-0.18249779516388498
466,-0.12007996151608247
467,-0.28838957646868557
468,0.1422300529120474
469,-0.21968371408260928
470,0.0449790579390279
471,-0.010661112863396768
472,0.007673398766524957
473,-0.05397898292363679
474,-0.3095192600486269
475,0.20902772743611786
476,-0.17636122022595827
477,-0.037854543351371166
478,-0.3763109509304678
479,0.2825254110860321
480,-0.12662624407310077
481,0.01952013136767703
482,0.19933447470607507
483,-0.31780965290561547
484,0.25109346206970434
485,0.4501133031724415
486,-0.24978482127928708
487,-0.060745177288478266
488,0.2547464225521299
489,-0.6007934682279151
490,0.27921179371089155
491,-0.31533941511847574
492,-0.19300460222787633
493,-0.09748728641357433
494,-0.060047843588550386
495,0.048900135516440575
496,-0.06782209286487473
497,-0.272480021151767
498,-0.00031315053009020176
499,-0.04851973117011164
500,-0.0801334821693021
501,0.04914419002741105
502,-0.22000591544218415
503,0.30946030803733354
504,-0.06039081446968208
505,-0.40390590633637546
506,0.12440480849174915
507,0.09009249079755834
508,0.06634075923683339
509,-0.17070707752987274
510,0.16934411344047456
511,-0.08261914406463872
512,-0.332586971035816
513,-0.09261527940657224
514,0.08508465147972259
515,-0.08421418992547137
516,-0.3939766622179985
517,-0.0829390788619155
518,-0.2808101113272084
519,0.26401529851221
520,0.15945554321616812
521,-0.06445097423402313
522,0.18081071860245154
523,-0.37974518561977927
524,0.12433114299104733
525,0.3458144359636508
526,0.1994863462186135
527,0.08559918480559577
528,-0.1500142619215721
529,0.018309251665602946
530,0.14831955282530881
531,0.26049655418274725
532,0.35993912239216275
533,0.1926657157981384
534,-0.4045084895455919
535,-0.23465916833285339
536,0.4392765308930707
537,0.023650583139864668
538,-0.20108104081652045
539,-0.21255081545834426
540,-0.06467683473214256
541,-0.014978129840149663
542,-0.2970179777111572
543,-0.11513345035054379
544,0.38301476130564477
545,-0.1968004186517462
546,0.24765157895958914
547,0.19776273690562135
548,0.4337660009164611
549,-0.1442303061139174
550,-0.33490879538832014
551,-0.15251336062433685
552,-0.06808975012587923
553,-0.02825342398935044
554,0.10318226245938542
555,-0.45502090282872004
556,-0.47221778178823226
557,0.5379218272454701
558,0.21854395693124146
559,0.1559586742606866
560,0.07199506979580868
561,0.25844124503414956
562,0.031610513416363804
563,-0.12327599275018838
564,0.2897468093666602
565,-0.1438926292353959
566,0.049735629927271145
567,0.10313480373248965
568,0.05291775644159202
569,-0.13123854848840624
570,0.0609657585321268
571,0.02813674778316706
572,0.07142259247317984
573,0.014086084087123411
574,0.06543713596433927
575,0.23924852178321857
576,0.15969329126000484
577,0.016149445894005528
578,-0.04165367631485562
579,-0.020527286155930958
580,0.39530693258530825
581,0.22552227171935765
582,0.34955095575550044
583,-0.20474772021865256
584,-0.11229900118007755
585,-0.015316055169375373
586,0.0469707455561913
587,0.42267338734336246
588,0.4112397885501914
589,-0.13173451779278253
590,0.08008024966494227
591,-0.12562180187235397
592,0.15940393448116155
593,0.11250809879014405
594,-0.40304212010017615
595,-0.28194563369168035
596,-0.1022943319096757
597,0.029005033059517533
598,0.07827047769346576
599,-0.2880974207534079
600,-0.033690945812798564
601,-0.1679997475357223
602,-0.3111686026689916
603,-0.5020253690235006
604,-0.22188823533653768
605,-0.17578513106911922
606,0.06241204921408862
607,-0.15674881694681145
608,0.045186187916615266
609,-0.062433222443535344
610,0.09737644558210766
611,-0.06643952553576196
612,0.1564317570543786
613,-0.1244912351870119
614,-0.01987366924855297
615,0.12583645612057018
616,0.176841971984392
617,0.006979587988945244
618,0.13094639394743396
619,-0.04231122718132697
620,-0.09379336451118722
621,-0.003893031929258381
622,0.2936812316775843
623,0.18571037038393612
624,0.04216541390786842
625,-0.31228991382383164
626,0.2189140250499977
627,0.2640444464509444
628,-0.021001832123471495
629,-0.5596432238910584
630,-0.16397510991384837
631,0.030846912983759082
632,0.26255314026322535
633,0.2072670626281197
634,-0.04660665440035087
635,0.27188930201370964
636,0.3750564303035034
637,-0.11309208383767164
638,0.24643611850139058
639,-0.3469509842127371
640,-0.1344376974627554
641,-0.25764353500323656
642,-0.0739745988995824
643,-0.14264329499833686
644,-0.2679798876385933
645,0.00662958139233005
646,-0.30463517907237053
647,-0.27847409460802985
648,-0.18157390748771982
649,-0.6115324492382646
650,0.08917543948448438
651,0.0078556266165557
652,0.13208749874233877
653,0.030221014416070564
654,-0.006270489886236647
655,0.1248246232141031
656,-0.3876859996214718
657,-0.2864060360991441
658,-0.15694697823266335
659,0.15514941391071554
660,-0.4257932538534784
661,0.0033950251550356894
662,0.3553784360900223
663,-0.35946730543266353
664,0.31937354818661057
665,-0.350411870543066
666,-0.15976819681153268
667,-0.27568180698741945
668,0.13363733091067112
669,0.1517676046507149
670,-0.4165175660849736
671,0.03038012704121891
672,-0.19348475842198384
673,0.08865746726342986
674,0.1750751603873742
675,-0.3811135443020152
676,0.19503020215542033
677,-0.2808341553623391
678,0.2677785634925557
679,0.23304289463006403
680,0.2586791366244296
681,-0.0314840795306209
682,0.2079848885024955
683,0.14671684784147415
684,0.5370659779270893
685,0.3914261233420953
686,0.030717219022445612
687,0.21472650496972384
688,0.4633735254143438
689,0.10616020142206006
690,0.06263007161955764
691,-0.5797366415192122
692,-0.09802358008202017
693,-0.22288713531735346
694,0.2186776664543189
695,0.04784546569325263
696,-0.3040721934809641
697,0.12496467646735485
698,0.1663827263380101
699,-0.011569138811456083
700,0.04901128266403145
701,0.30278392138344795
702,0.014143232658290745
703,-0.1210802156577995
704,-0.19810386955048365
705,0.35483990418544864
706,0.28095133446172593
707,-0.3763663904611146
708,-0.17889319827466413
709,0.13919745358034694
710,-0.03398554709012958
711,0.16198240880117684
712,-0.17568989617778866
713,-0.07435759392585324
714,-0.09949746508940194
715,-0.23434323998376372
716,-0.5623916120116293
717,0.40506729280088094
718,-0.07534402285774969
719,-0.2804303371063075
720,0.07200096279137677
721,0.2451625855132119
722,0.01638162199873556
723,-0.5688048719060835
724,0.4057932827841435
725,0.4355901542740158
726,-0.4565624776136083
727,0.02911054372575396
728,0.036339541285497164
729,0.19555534744727565
730,0.5001354589607053
731,-0.04329960458510796
732,-0.4387293916730788
733,-0.08143280123505693
734,0.12095478123152784
735,0.5260873483151403
736,-0.21281866327830776
737,-0.0571277943221737
738,-0.6106938864913404
739,-0.1306853428340525
740,-0.03285545057903527
741,0.07957568783917912
742,-0.0017719176440088393
743,0.059172953829785
744,-0.13025881757242125
745,-0.022768742177365596
746,-0.03146537279897843
747,-0.4476948788202991
748,-0.20722080238393514
749,0.1943038608791999
750,-0.026399249743764636
751,-0.019382525905091604
752,-0.1972679088090982
753,-0.31355013036950713
754,-0.0509000836054298
755,-0.29459095430080395
756,0.3530191496450226
757,-0.11687665209433915
758,0.02248422469485263
759,-0.07782878062881711
760,-0.36211988857308336
761,0.0882066590034392
762,-0.1938608659014807
763,0.010212562481547179
764,0.24783811430085678
765,-0.2518831091631653
766,-0.48963718853647337
767,-0.011725901614683128
